function [y1] = critAlphaModel(x1)

%%%% y1 --> output [alpha (water)  alpha (EO)]
%%%% x1 --> input [M m0 n0 phi] 

%MYNEURALNETWORKFUNCTION neural network simulation function.
%
% Auto-generated by MATLAB, 02-Oct-2024 19:53:03.
%
% [y1] = myNeuralNetworkFunction(x1) takes these arguments:
%   x = Qx4 matrix, input #1
% and returns:
%   y = Qx2 matrix, output #1
% where Q is the number of samples.

%#ok<*RPMT0>

% ===== NEURAL NETWORK CONSTANTS =====

% Input 1
x1_step1.xoffset = [0;-1;-1.2;0];
x1_step1.gain = [1;2;1.66666666666667;10];
x1_step1.ymin = -1;

% Layer 1
b1 = [-2.1422736684819292385;-0.69168407571855217153;-2.7236381070181816533;1.5544283833868199896;-0.86712994706006951695;1.0836936263802630087;0.44214904616168432261;-1.2802761487622431602;-0.72100646817065117133;1.1203279379037147656;0.27937622053855470927;-1.8224619981095382393;-1.5722102706975646935;-1.6249025890703776565;1.8445331738676067346];
IW1_1 = [0.98300244128636504737 0.2386442899415253116 -1.0284922043494717503 -1.0112809559236244361;-0.14860382899440885418 -0.37649034925739094382 0.26815576013356934304 -0.64735716624835826227;2.5149808537476041614 -0.26247919419075455005 -0.53205457633861130695 1.5473692791048960782;0.24944706103966565736 -0.90566240865838376628 -2.3132945478019908414 0.70437831071324397136;0.033223203281082178129 0.053987625038054827542 0.046600758892278965062 0.63945515761637927721;-2.0226587863037708281 -0.21751225108090885274 1.6654404973531340417 1.0740553252411682017;-1.1435154716883504378 0.010563281133149729843 0.039533550889668200856 -0.00082123935859743210555;1.9613635709515504502 -1.6061659100829321911 -0.020653485763046808971 -0.98405297363430621616;-0.10572280591979990594 0.095961255357194630289 -0.10148134887850085439 0.45958569608820210028;-0.14030646981289673914 -0.61351483748602542168 0.46118652669621273965 -1.0745327141419045436;0.697038043857865941 0.22489334180124101459 -0.35969588913794497964 0.26168186937695475658;-0.42622067110550826419 0.62610237191802009526 2.3412149105180968256 -0.76941020288786621251;-1.6349146236615192951 -2.6268611318023453727 0.61514175845626961614 -0.18726051855792943956;-0.91702830840085158837 -0.086750480992591208484 0.079117760577534682054 -0.13934000743559510349;0.78246618690442604205 0.011686003090472248112 -0.20113989070317039864 -0.9738571483165593401];

% Layer 2
b2 = [0.70774123039687664161;0.46223110814539808411];
LW2_1 = [0.072155821411261353293 -0.14091806882697227588 -0.067340996082899520769 -0.04568878816418142641 -1.4882260689072226434 -0.029651728173527562571 0.40938878343361950751 -0.0026294909943443867291 0.96420855789866455332 -0.1139781554511081485 -0.31057907069203755102 -0.054151214149409009069 -0.0011005068067701593692 0.57640968156976502001 -0.43490668612096688994;0.08429411581360717054 -0.41805793490788617506 -0.011374856026653546587 0.17394724490404953055 -1.250779406183236464 -0.021256281474200982434 0.48385180999646676403 -0.037161559453320176794 -0.21673970866968772508 -0.48341473406731377827 -0.15187165419769488306 0.17212936352756066927 0.056791834064298780949 0.7522634470156608355 -0.54012100107630223178];

% Output 1
y1_step1.ymin = -1;
y1_step1.gain = [0.67812701318957;0.787733415257609];
y1_step1.xoffset = [-4.1948;-3.58003];

% ===== SIMULATION ========

% Dimensions
Q = size(x1,1); % samples

% Input 1
x1 = x1';
xp1 = mapminmax_apply(x1,x1_step1);

% Layer 1
a1 = tansig_apply(repmat(b1,1,Q) + IW1_1*xp1);

% Layer 2
a2 = repmat(b2,1,Q) + LW2_1*a1;

% Output 1
y1 = mapminmax_reverse(a2,y1_step1);
y1 = y1';

% ===== MODULE FUNCTIONS ========

% Map Minimum and Maximum Input Processing Function
function y = mapminmax_apply(x,settings)
y = bsxfun(@minus,x,settings.xoffset);
y = bsxfun(@times,y,settings.gain);
y = bsxfun(@plus,y,settings.ymin);
end

% Sigmoid Symmetric Transfer Function
function a = tansig_apply(n,~)
a = 2 ./ (1 + exp(-2*n)) - 1;
end

% Map Minimum and Maximum Output Reverse-Processing Function
function x = mapminmax_reverse(y,settings)
x = bsxfun(@minus,y,settings.ymin);
x = bsxfun(@rdivide,x,settings.gain);
x = bsxfun(@plus,x,settings.xoffset);
end
end