function [y1] = nusseltNoModel(x1)
%%%% y1 --> output [-theta'(0) [water] -theta'(0) [EO]]
%%%% x1 --> input [M m0 n0 phi alpha] 

%MYNEURALNETWORKFUNCTION neural network simulation function.
%
% Auto-generated by MATLAB, 02-Oct-2024 23:29:23.
%
% [y1] = myNeuralNetworkFunction(x1) takes these arguments:
%   x = Qx5 matrix, input #1
% and returns:
%   y = Qx2 matrix, output #1
% where Q is the number of samples.

%#ok<*RPMT0>

% ===== NEURAL NETWORK CONSTANTS =====

% Input 1
x1_step1.xoffset = [0;-1.2;-1;0;-3.5];
x1_step1.gain = [1;1.66666666666667;2;10;0.307692307692308];
x1_step1.ymin = -1;

% Layer 1
b1 = [-0.6518280238867519838;1.5296606535823864537;1.5678986171704014652;0.91635593349034893951;1.0963044975475282339;0.061000741990743671816;0.23601579582648757327;0.30504478871919171734;0.27965807823907140595;0.013043510840052415997;-1.3378733936615210265;-0.71719888311943758019;-0.40032297927554688632;0.28291420336569189642;-0.15377208408688677888;-1.0656721816364131961;0.26576268702449601378;-0.10738212854432707677;1.0410966967043326914;2.3508320276302288043;1.8578101800808231037;1.5450812605404113942;1.806049052526948584;-1.0958076478928391317;-1.1726933117841984444;1.0711237461230147527;1.9855139753365587119;-2.5152282054281394075;1.9340803413692275736;-1.5275981358332053617];
IW1_1 = [-0.042682237179361294521 0.04819753014414698139 -0.096155966763591324553 0.047652833304799212255 -2.7973721874915042918;-0.24437796909457307204 -0.1761796593994769955 0.0080572131066516065184 0.54314783038376346358 -2.822840856759914363;0.35109907086467900816 -0.54891930541265221422 0.15872216796620705614 -0.23295028211357338144 11.206263841351495003;0.026983255888708288645 -0.090642217874388419929 -0.30984436014775218471 -0.42421887627609955462 1.7694783220121601541;0.56829661503296580172 -0.28091575640314669915 0.094040078892995815352 -0.10404764806308806901 5.1987338399559313018;-0.058630077691560845976 0.082385345597213097135 -0.27801271980995911903 0.13705306962768684653 -1.8148950674329296096;0.10542183823788620067 -0.065148833003146638942 0.2052125974452949364 -0.12326612230589351071 5.8874747963527953587;0.077686655277510036077 -0.0170755977261642794 0.078254548746886018473 -0.072386683893864309236 6.0496856926058191206;0.0097757563721310378191 -0.030357989680314952097 -0.017732994845792233313 -0.0288331027709448455 -0.87495973661623815953;0.0097613668875229740035 -0.077967339665285323447 0.071669624903021977858 0.077093018548137035029 1.5044474237174354503;-0.32768558882348775008 0.53492144874937941346 0.039423622995707410799 0.034446956261659007759 -3.2681493662023912705;-0.075696375730733650444 0.15684037586936042108 -0.18029659537841152828 0.040121569907701777613 -3.5851077938239397369;-0.028192080788134520758 0.098331256187868698593 0.053830141780059515 0.023881111963769158235 0.80880720305513131851;0.036719795735219842858 -0.041715297588513375326 0.12632047823820885535 -0.085619286792274706954 2.1208910877055280331;0.10654271168539627967 -0.16035776769583567902 0.37914894068006382843 -0.20780727923523439893 1.8951594899480614931;-0.48908413271445816406 0.43322334758168973279 -0.19594467252349101472 0.095799529509614692047 -5.8870475874719776499;0.093168165483172124541 -0.043967860694243042496 0.13604506921725140201 -0.096200101927487791098 6.0207392870863047918;0.0023031138505879042259 -0.11223401591320746051 0.13846642531284286681 0.13467415757465273085 1.6729233816452679928;-0.0045730799801086642262 0.0093844390138302768295 0.043524677291811114666 0.013573958674635157318 -1.4556419732819074753;1.3500748540707143697 0.2174818124388318008 0.1796955053211218567 -0.11763191632433962763 2.350800706820953323;2.0578518420498097541 -0.057506875021454080532 0.038091654533220067891 0.69013116094694715308 0.15429132975311138365;0.35849669429186065139 -0.55432118032862265355 0.17456874064994670759 -0.23830714599900892914 11.18522740163475504;0.086054207798738652224 0.049867821819218803581 0.46541404443726275275 0.46682541639296093461 1.429434645420662342;-0.33643651754337366988 0.32750069501674128336 -0.036042899502000937118 0.078487868053435813631 -4.8976691490510173566;0.0047039682256361271817 -0.0056364087362743512527 0.022276521456538973809 -0.034073277480940709905 1.4393786835138824287;0.40628591490403331843 -0.37551699998509280309 0.12124145966402410934 -0.085398264534913892465 5.302432968965057114;0.004791791142246819464 0.0058031189718892768614 0.22375841732767851044 0.16163023107555293811 -0.48691289201075815818;-1.7478666440921415415 1.7176589120486480677 0.49922634989671360595 -0.075695293719117415221 -0.82435403610000157482;0.0001117449647919654276 0.0013369089295250033422 0.36086950277468071713 -0.024489842780178669446 -0.99730571428415037971;-0.041896298833390167859 -0.43972873365964965098 -0.032686147559858429179 -0.96883544829915102525 1.1740007302318768989];

% Layer 2
b2 = [1.9304290857977697282;-0.86956604959398531296];
LW2_1 = [0.80232877525133505792 0.008044415767193167574 0.09951704697829218127 0.020457620980798025406 -0.0036348107733619136085 0.81507251082204901227 -0.37483421324802879138 -0.44640614330181999092 3.9899990560342462054 2.7232059731555344761 0.073447043827614605371 -0.083425426894401077949 1.7916809495466596847 1.2570840487961461029 0.14471305499211997714 1.3374479837719226438 0.8055248214556400832 -1.1628501722346540337 -3.1108744384707360808 0.065060030687367514934 -0.0026422362320959792183 -0.078256114490114270232 0.025806238386455463557 1.8017887932259426531 -2.3524070490111221865 3.2525571861930813178 -0.95082628698787940991 0.00012994253127121565649 -1.8349283688903457179 -0.010997963005168085934;1.5333317780333710623 -0.0023713416219756592446 -1.8662219988590940112 -0.023667333403028820854 0.16002436618114129763 1.3973559512311231057 -1.6537229680593308334 -2.1676301104726407587 1.7634417839850999865 0.66628864222734462963 0.02494341337904733627 -0.48321226804548605971 0.81166706385655285061 2.4768710562487328275 0.34295022346691955706 -0.044918008407307044583 3.7853071540650802262 -0.17307924438427646496 -2.9325446589314458912 0.01738430180642953557 -0.00098894649131939997393 1.9036855038848385924 -0.046779857355881096503 0.080718524909687949798 -2.4601562125984228757 -0.24925974949514459467 2.5527644987705389035 -0.00014194987655275580055 -2.3361863537340274988 -0.0052600147938080769189];

% Output 1
y1_step1.ymin = -1;
y1_step1.gain = [0.304457421031364;0.109006664513609];
y1_step1.xoffset = [2.90762279605781e-14;-9.09519816243152e-13];

% ===== SIMULATION ========

% Dimensions
Q = size(x1,1); % samples

% Input 1
x1 = x1';
xp1 = mapminmax_apply(x1,x1_step1);

% Layer 1
a1 = tansig_apply(repmat(b1,1,Q) + IW1_1*xp1);

% Layer 2
a2 = repmat(b2,1,Q) + LW2_1*a1;

% Output 1
y1 = mapminmax_reverse(a2,y1_step1);
y1 = y1';

    % ===== MODULE FUNCTIONS ========
    
    % Map Minimum and Maximum Input Processing Function
    function y = mapminmax_apply(x,settings)
    y = bsxfun(@minus,x,settings.xoffset);
    y = bsxfun(@times,y,settings.gain);
    y = bsxfun(@plus,y,settings.ymin);
    end
    
    % Sigmoid Symmetric Transfer Function
    function a = tansig_apply(n,~)
    a = 2 ./ (1 + exp(-2*n)) - 1;
    end
    
    % Map Minimum and Maximum Output Reverse-Processing Function
    function x = mapminmax_reverse(y,settings)
    x = bsxfun(@minus,y,settings.ymin);
    x = bsxfun(@rdivide,x,settings.gain);
    x = bsxfun(@plus,x,settings.xoffset);
    end
end


