function [y1] = skinFrictionModel(x1)
%%%% y1 --> output [ f''(0) [water] f''(0) [EO]  g'(0)[water] g'(0)[EO]  ]
%%%% x1 --> input [M m0 n0 phi alpha] 

%MYNEURALNETWORKFUNCTION neural network simulation function.
%
% Auto-generated by MATLAB, 02-Oct-2024 23:11:49.
%
% [y1] = myNeuralNetworkFunction(x1) takes these arguments:
%   x = Qx5 matrix, input #1
% and returns:
%   y = Qx4 matrix, output #1
% where Q is the number of samples.

%#ok<*RPMT0>

% ===== NEURAL NETWORK CONSTANTS =====

% Input 1
x1_step1.xoffset = [0;-1.2;-1;0;-3.5];
x1_step1.gain = [1;1.66666666666667;2;10;0.307692307692308];
x1_step1.ymin = -1;

% Layer 1
b1 = [-2.0994846709067216395;3.1968961190399252104;-1.3195857695311170588;2.3905421238840403042;-0.64409987247038047453;0.90599525452745022225;0.27591608142895596156;0.04067237310327651012;1.917747440282961735;-0.17390600473590434039;-0.1285925063523826184;-0.053482920031636092817;-0.33516647690556294892;0.25668464908288346482;-0.1626093916717204213;-0.25311462148357799506;-1.3720880771362180539;-1.7956857265428678438;-0.34017425062467576691;0.45157206741060063049;-0.26262879344869732856;2.7965986388863846024;3.5295379890895679509;1.0725688367395256329;-2.2451782560723367865;-0.69137952435605187773;-0.32498955829242026638;-2.8292360136266618831;-6.3528309276127270522;-6.2828543621773169647];
IW1_1 = [0.073223631771056327255 -0.50065796992689637346 -0.021691061338375484946 0.0062675232678519529617 0.84834147846441543273;-0.35368312700308396357 0.89265959179472842422 -2.6612052185253003422 -1.3110272213422222709 -1.0129249546881489152;0.066028113047422190562 -0.19284347922255154484 0.001383090708558412478 -0.093815131812729962713 -0.88224100050057541189;-0.063722117601668057385 0.47224127702061285961 0.075994599323128173007 0.012655819591995100953 -1.3798108935351114379;0.21330026982728059193 0.014883200221091321541 -0.0045224375929680269218 0.17242455255150671012 -0.49923872450069467499;-0.42287615416321777673 -0.088620310420192957568 0.0075113208619762977802 -0.2240347272220662711 0.32484907305682614309;0.11428073442656619396 -0.29317135923644960238 0.087709818197497513292 -0.04994538792466460958 3.6174576476818907089;-0.057095546208761636942 0.32035154022618600456 -0.0043742515052048076829 0.025407229301250115056 -0.31674183343716239003;-0.11159407984112550138 0.16451594843947675573 0.022898881967682731958 -0.08455656662745138219 -1.0630296472006028896;-0.11714354148134857592 0.21216073172262422952 -0.11151035970818554133 0.060795042686610491212 -3.9518012969262183987;-0.11474724180702972065 0.17287100694790175082 -0.11751692755017528746 0.064702742555982323269 -4.1080290951439941693;-0.0061721267585887898757 0.13553306603477324743 0.020499422740441908958 -0.07867189200433995222 1.1373404734909404734;0.01895110245048704789 -0.18206024574030435503 -0.0052248150860640567641 -0.48242499699134383517 -0.821540252067057164;-0.044936660363892835801 0.062667449014883594427 0.0060092099763648003721 -0.13238700440159562044 0.73241695747482427059;-0.0099054836683822051341 0.19563182322021863135 0.035731370644388756042 -0.08187167056226195283 1.2891382186463018478;-0.025973212986866448665 -0.17985718280886989207 -0.00055925158056749487909 0.34860990551325005127 -0.17118420767619793588;-0.89546263683663751554 -0.32898602309206226302 -0.0075925116587362562193 -0.1264089055188976074 -1.1612134699592711051;0.086085282184688541318 -0.60540777825515990074 -0.098392871881953100632 -0.031882974102269888428 0.73257439145497327271;-0.11668710056855439994 0.34833828945479633488 -0.075657863664728527975 0.042869070608848466875 -3.3307695590767014693;-0.010056934614745983297 0.13596699757666280695 0.002592105783529510734 0.42130802679617679329 0.78226229878076392055;-0.1025755356949642344 0.30068198175443722198 -0.069247992858386009374 0.039280660230465003213 -1.9516024028400600354;-0.0036711446185029006882 0.25858605610478291315 0.0040115421804959583429 0.62433171446025337303 -0.81591570160368065423;0.79718593655292602218 0.25682449647247035385 -0.013268692991143726453 0.13771640799576165271 3.9362740828811775273;-0.03875350203647044689 0.14862150867695470002 -0.0026341382378545358245 -0.0077763731480365158241 -0.56369421903873861979;-0.15986298357425959837 -0.31154159398534170267 -0.016377879321819222014 0.31020738388675955788 0.67075218208259090868;0.0038645874756705251608 -0.082016113809925753064 -0.0012291438067982376255 -0.31881608391671345526 -0.68964288549188024202;-0.10780866348406396849 0.27141001425031630045 -0.014154500333431848519 0.024283522219792706698 -1.1492313757507310878;0.06275445501750540056 -0.46811728565501442567 -0.12455481920253763661 -0.012541382122895230675 1.9692987229753939893;-2.7750208369400710673 -0.28710817215376910339 0.00022701461382529266979 0.22625113134821006611 -8.5727345806209047652;-2.5570752467454669343 -0.27837700553769095801 0.0045892891441732504634 0.31564022013434450686 -8.2297276327384434325];

% Layer 2
b2 = [-0.63633918306336845205;-0.59795210555225430937;1.1511380396332731024;0.95220055400326875095];
LW2_1 = [1.7932867990733867281 -0.00043483385772895608674 1.9999787860405151552 4.0951638369395606531 3.0543284383806770244 0.74096772855538517444 1.3650054530032829092 -0.43600426268908759608 -0.7156618705677951775 1.9968276100881574564 -1.1262475367528652637 -4.7051284835601361323 0.00037045201783102220481 6.0447831661367814604 1.6519457139595485895 0.43816690550752029898 -0.089603285481432204396 0.50773038323688646223 0.56257379810966523515 -0.62412659388321634069 -0.40199310305768132245 -0.58914062816528101063 0.60181205165378381938 3.3501275006289499281 0.74752696763603998509 -1.6979126339828651826 0.36836630069856474146 1.0396949799510983858 -0.82547764709467397193 0.94245308246582470968;1.9442194259527765254 -5.6616997176298390344e-05 1.8081466003141923871 5.9612190967124076835 2.7328503983021725787 0.6490590548404409077 2.2647008593766106976 -0.36804485284243321219 -0.84448644795037253186 0.9632574619855610587 -0.090346080574903717131 -4.2402234593378862471 0.55872955693293280266 5.6116328041602576704 1.345900638068846078 0.40045227532582861052 -0.086985751588118179201 0.7769081632411179994 1.5328702799091702413 0.59437197157296872696 -0.47494401719791851102 -0.90322867172868215313 0.57942432703546986605 3.071979876857962477 0.72587172466618898881 -0.82022105447619853003 0.31989686186065174889 1.8195891618586261806 -0.70920461801924306044 0.80927517982135932506;-0.53717250291990592537 -0.0030227616593781641598 -0.28252995787244344905 -0.43299638017518721211 -3.3522953763150038498 -0.98815718635150573412 -1.7476734258058459481 1.2384844637503282794 -0.68973048302272188526 -2.4372603502179273072 1.3166045681892470931 0.64311510908499969208 -0.38435487601185958084 -3.5864464968275306944 0.25981742754144904195 -0.072165573558889431482 0.19681733670222606447 -0.90341408237530151926 -0.69236306805404979059 -0.72485837784441586873 0.46542163693542570879 -0.57804764484375315003 -0.76045505978012561954 0.23972364513442048772 0.85554830761743028145 -0.021179612392011090694 -0.9926765414810325705 -0.12678702410459527505 2.2897440084809859151 -2.5573465355907147867;-2.0599935199798955487 -0.0029351107122955535922 -0.14124057828792560554 -1.3645370858011030002 -2.8085290963163793698 -0.81351257910885821367 -2.552447991701301433 1.113341638617052709 -1.0530884933062467645 -1.0248317281796017753 0.061677465098295657098 -0.3982222699360516982 -0.85586265094520908026 -2.9650627514245440075 0.92885698010195438812 -0.1303824422151897422 0.17451482411469268485 -0.68642661816285732712 -1.7448383410236951718 -1.8128089072881408139 0.5280385421419597769 -0.97774078774620931664 -0.68358771632070547408 0.49842200473088449364 0.96759221358937919089 -0.97273204201841201311 -0.98205917929441732817 -0.50217125211208080149 2.0920318164366742408 -2.3139444565919782271];

% Output 1
y1_step1.ymin = -1;
y1_step1.gain = [0.102953109526311;0.0948280881747421;0.332209748292743;0.280187604689523];
y1_step1.xoffset = [-11.9389653470372;-13.8689388900797;-5.52554819934479;-6.41227062087905];

% ===== SIMULATION ========

% Dimensions
Q = size(x1,1); % samples

% Input 1
x1 = x1';
xp1 = mapminmax_apply(x1,x1_step1);

% Layer 1
a1 = tansig_apply(repmat(b1,1,Q) + IW1_1*xp1);

% Layer 2
a2 = repmat(b2,1,Q) + LW2_1*a1;

% Output 1
y1 = mapminmax_reverse(a2,y1_step1);
y1 = y1';

    % ===== MODULE FUNCTIONS ========
    
    % Map Minimum and Maximum Input Processing Function
    function y = mapminmax_apply(x,settings)
    y = bsxfun(@minus,x,settings.xoffset);
    y = bsxfun(@times,y,settings.gain);
    y = bsxfun(@plus,y,settings.ymin);
    end
    
    % Sigmoid Symmetric Transfer Function
    function a = tansig_apply(n,~)
    a = 2 ./ (1 + exp(-2*n)) - 1;
    end
    
    % Map Minimum and Maximum Output Reverse-Processing Function
    function x = mapminmax_reverse(y,settings)
    x = bsxfun(@minus,y,settings.ymin);
    x = bsxfun(@rdivide,x,settings.gain);
    x = bsxfun(@plus,x,settings.xoffset);
    end
end


